<?xml version="1.0"?>
<opencv_storage>
<my_svm type_id="opencv-ml-svm">
  <svm_type>C_SVC</svm_type>
  <kernel><type>LINEAR</type></kernel>
  <C>10.</C>
  <term_criteria><epsilon>9.9999997473787516e-05</epsilon>
    <iterations>100</iterations></term_criteria>
  <var_all>2916</var_all>
  <var_count>2916</var_count>
  <class_count>2</class_count>
  <class_labels type_id="opencv-matrix">
    <rows>1</rows>
    <cols>2</cols>
    <dt>i</dt>
    <data>
      0 1</data></class_labels>
  <sv_total>1</sv_total>
  <support_vectors>
    <_>
      1.73051983e-01 1.34790540e-01 7.10692303e-03 1.40233729e-02
      2.43611410e-02 -8.66001658e-03 -2.97356024e-02 -5.40460646e-03
      -3.39937396e-02 6.08970970e-02 7.44526237e-02 6.94782138e-02
      1.67865306e-02 -4.81851120e-03 -8.05993378e-02 -1.76082216e-02
      5.63561590e-03 6.08768966e-03 1.23143895e-02 7.33697191e-02
      3.64064574e-02 2.03315839e-02 -4.39684605e-04 -9.47332978e-02
      -4.66450043e-02 -4.82370425e-03 -1.68843940e-03 5.42120896e-02
      8.08934569e-02 3.09444461e-02 2.11211368e-02 3.22437030e-03
      -1.62885487e-02 1.35363461e-02 -2.39301007e-03 -5.70339225e-02
      4.87094894e-02 5.16750701e-02 7.49867782e-02 -2.44000237e-02
      -7.83150941e-02 -8.97273347e-02 6.46812618e-02 2.29051448e-02
      -2.96406411e-02 -2.00093631e-02 5.28629050e-02 -2.82558575e-02
      -6.48281947e-02 -5.52714020e-02 -2.91426927e-02 9.52929109e-02
      8.60199612e-03 3.91005713e-04 1.46982130e-02 2.15819888e-02
      3.07607435e-04 9.67341382e-03 2.13771872e-02 -5.50527014e-02
      5.93280979e-02 1.29142990e-02 1.27967941e-02 4.18733023e-02
      9.79210716e-03 3.23196799e-02 3.72568704e-02 1.48156728e-03
      9.77631658e-02 6.15045987e-02 4.94406279e-03 3.82991470e-02
      4.58718417e-03 -4.90825332e-04 8.53640735e-02 5.03730588e-02
      1.16919708e-02 5.39003052e-02 6.45873547e-02 1.27526680e-02
      3.69520523e-02 8.77616554e-02 8.04415867e-02 7.12264553e-02
      1.74529701e-02 -1.05432793e-02 -8.43068510e-02 -1.91965029e-02
      6.66522188e-03 1.84464604e-02 1.51031632e-02 7.10357875e-02
      4.05327566e-02 1.94917209e-02 3.62832122e-03 -9.53054577e-02
      -4.65462878e-02 7.87942728e-04 -2.82202708e-03 5.97177632e-02
      6.71855658e-02 -4.73832712e-04 -4.22193762e-03 2.34429762e-02
      2.23558601e-02 -6.24757074e-02 7.98627269e-03 1.51396240e-03
      8.67169723e-02 5.79882301e-02 7.15445355e-02 -2.00426988e-02
      -7.92120025e-02 -1.03742272e-01 5.23405112e-02 2.60005388e-02
      -1.96490977e-02 -2.46952046e-02 5.38437217e-02 -1.60811413e-02
      -4.76226620e-02 -3.11658643e-02 -2.23788098e-02 8.60815868e-02
      1.69207901e-02 -1.77956221e-03 3.85805150e-03 1.01796418e-01
      4.88469470e-03 -2.22111996e-02 7.74266571e-03 8.26942772e-02
      5.58616333e-02 -2.59225368e-02 -2.12880168e-02 5.12296036e-02
      8.16805754e-03 4.18929942e-03 2.50090230e-02 -4.43935534e-03
      9.71035808e-02 7.21222907e-02 9.08240501e-04 4.76908647e-02
      9.58638266e-03 -1.31686986e-03 7.71995559e-02 4.15836312e-02
      2.81253997e-02 5.24269827e-02 8.97160694e-02 2.41582058e-02
      3.86229865e-02 1.77590686e-04 -1.78406890e-02 -4.09557223e-02
      -4.32426296e-02 3.44814211e-02 8.52482244e-02 7.88668171e-02
      2.65033990e-02 2.80869822e-03 1.99885238e-02 7.51077011e-02
      3.03625502e-02 1.29263215e-02 -2.12205295e-03 -9.50007588e-02
      -4.90577444e-02 3.38552217e-03 1.86653843e-03 6.40275627e-02
      7.16289580e-02 -1.02660386e-02 -6.73830602e-03 1.69821028e-02
      2.04488393e-02 -6.26256913e-02 8.81813467e-03 -8.93316057e-04
      7.12876394e-02 7.43225664e-02 -3.21292542e-02 3.15309875e-02
      6.71378970e-02 6.08548857e-02 -5.25167994e-02 -1.69845317e-02
      -3.96048836e-02 -1.63930450e-02 6.04502186e-02 -2.27919891e-02
      -5.43075129e-02 -3.29498090e-02 -2.95729823e-02 6.94233328e-02
      1.95239801e-02 1.86170894e-03 1.06612509e-02 1.06720448e-01
      -8.66492453e-04 -2.53099669e-02 -1.82438381e-02 6.74803406e-02
      4.47292328e-02 -2.60878112e-02 -2.24462654e-02 5.55244274e-02
      1.41153321e-01 -1.50361490e-02 -1.10494234e-02 2.53933780e-02
      6.97355419e-02 9.94440168e-02 1.09623652e-02 -2.99519356e-02
      1.08101508e-02 -4.86552017e-03 5.86082637e-02 3.91820148e-02
      2.26352382e-02 3.65489200e-02 5.13576455e-02 1.76826958e-02
      4.43039052e-02 1.29619584e-04 -2.80846283e-02 -4.96629551e-02
      -4.67784479e-02 2.27960851e-02 6.82591274e-02 7.32376799e-02
      1.39931785e-02 -3.06199631e-03 3.81742306e-02 -6.77931979e-02
      -2.47070175e-02 -2.15400867e-02 3.64479166e-03 4.05165404e-02
      7.23532140e-02 8.47757310e-02 7.44790584e-02 5.67520075e-02
      6.25878423e-02 -1.63929071e-02 -9.23462678e-03 1.27241137e-02
      1.99835580e-02 -6.19641542e-02 4.20360360e-03 -5.16597135e-03
      6.46519512e-02 6.60903528e-02 -3.74827571e-02 2.73853224e-02
      5.57601303e-02 6.19121119e-02 -4.73725423e-02 -1.81853659e-02
      -4.59199287e-02 6.67301565e-02 7.52865896e-02 7.30996393e-03
      3.62056866e-02 7.39401653e-02 6.71927854e-02 -4.71107736e-02
      -6.70748353e-02 -3.95870209e-02 8.26137327e-03 9.70253125e-02
      -5.33673447e-03 -2.85147633e-02 -3.02998573e-02 5.51685132e-02
      1.62604935e-02 -3.05468719e-02 -3.10653802e-02 3.99084799e-02
      1.24340303e-01 -1.79759022e-02 -1.26555739e-02 1.95087530e-02
      5.93286976e-02 8.20945650e-02 -6.51279185e-03 -4.08492200e-02
      3.46069410e-02 -5.07879956e-03 -3.83031480e-02 3.51686403e-02
      3.73655595e-02 2.71780323e-02 1.12949893e-01 -7.16094859e-03
      -6.76636547e-02 -2.18009180e-03 -3.44476774e-02 -5.16666025e-02
      -4.82110195e-02 3.64547502e-03 2.62207016e-02 4.64640781e-02
      -4.19222371e-04 -1.43201146e-02 1.70612689e-02 -8.13382268e-02
      -2.69210264e-02 -2.12931074e-02 8.39652319e-04 2.69190334e-02
      4.89985496e-02 6.17056526e-02 5.28986678e-02 7.37577165e-03
      4.41987142e-02 1.20683067e-01 2.68278457e-03 3.87116037e-02
      -7.79256923e-04 1.05890326e-01 5.58547303e-02 2.15839203e-02
      6.04975298e-02 5.99928126e-02 -3.88657562e-02 2.40062140e-02
      4.61849757e-02 6.18095025e-02 -5.00372499e-02 -2.29456779e-02
      -5.82668521e-02 6.76809251e-02 7.19151348e-02 4.57628258e-03
      3.25290449e-02 6.22796118e-02 5.47623336e-02 -4.66221981e-02
      -6.12042621e-02 -3.42667364e-02 9.39133763e-02 9.32492018e-02
      -4.05277545e-03 -3.23869064e-02 3.27006392e-02 5.79888187e-02
      -3.88644747e-02 -1.16277132e-02 -1.56759620e-02 2.63849441e-02
      1.25472859e-01 -1.87598318e-02 -1.89355221e-02 1.37923760e-02
      5.02730981e-02 6.17297478e-02 -3.09662130e-02 -4.96337004e-02
      2.97825132e-02 -9.62131564e-03 -3.38170901e-02 3.30942236e-02
      3.10080051e-02 2.05423832e-02 1.01249985e-01 -3.45181748e-02
      -7.93838874e-02 1.28884772e-02 6.02111146e-02 -1.74150255e-03
      1.66726243e-02 -5.29056527e-02 1.08343018e-02 7.21018985e-02
      9.85274650e-03 -1.25035405e-01 -5.95814129e-03 -8.50151330e-02
      -3.49195972e-02 -2.40357127e-02 -2.64979363e-03 1.56333987e-02
      2.43163668e-02 4.70277406e-02 2.91352235e-02 1.21429481e-03
      2.69562695e-02 8.73540267e-02 8.16358835e-04 2.50218287e-02
      -5.89774875e-03 8.30779672e-02 3.74075137e-02 1.93904750e-02
      2.09216196e-02 5.79622388e-02 5.60123138e-02 -2.47773733e-02
      2.29499545e-02 1.00686513e-01 4.10756543e-02 1.28994450e-01
      -5.73881082e-02 5.87498806e-02 7.09733218e-02 2.50419229e-03
      2.92815305e-02 5.50795309e-02 5.54172993e-02 -3.86827216e-02
      -4.71052006e-02 -4.98348959e-02 9.28882882e-02 9.16226581e-02
      -3.30915465e-03 -4.38234098e-02 3.36066671e-02 5.63063212e-02
      -3.07751801e-02 -6.89849071e-03 -1.60374288e-02 -2.66780332e-03
      5.03514335e-02 4.00628373e-02 9.89634767e-02 -4.51227324e-03
      1.68769676e-02 5.85813541e-03 1.29416408e-02 -1.03365980e-01
      2.68952139e-02 -8.51572305e-03 -4.00803797e-02 3.19923684e-02
      2.30383184e-02 9.86274984e-03 9.10108909e-02 1.44755812e-02
      -7.50868693e-02 1.66202534e-03 4.53738421e-02 4.06536623e-04
      2.15713028e-02 -5.87997586e-02 5.69985947e-03 6.19451962e-02
      2.44821124e-02 -1.10438988e-01 1.11624748e-02 3.71601023e-02
      9.75496601e-04 -2.80203763e-02 -2.21810979e-03 7.53031969e-02
      3.19476426e-02 -1.59750152e-02 -1.52697321e-02 7.50809396e-03
      2.05487795e-02 8.16347525e-02 1.13902763e-02 1.35537060e-02
      -1.49414735e-02 6.38233498e-02 2.46126577e-02 2.36575212e-02
      2.68260501e-02 6.31298721e-02 5.92469275e-02 -1.60753261e-02
      1.47478981e-02 9.12790224e-02 1.19036837e-02 8.78806412e-02
      -2.95038614e-02 6.76426664e-02 3.07651926e-02 1.96136273e-02
      2.89564878e-02 -2.69849151e-02 1.40013278e-01 1.22958729e-02
      -1.49537262e-03 -3.39819044e-02 3.81366909e-02 5.80366664e-02
      2.06573326e-02 6.33823173e-03 -1.18882330e-02 -1.56588759e-02
      1.17409155e-02 -5.19473432e-03 -5.57400137e-02 4.15987782e-02
      2.79399436e-02 5.23052141e-02 -2.65975129e-02 -7.56992474e-02
      -8.68375376e-02 5.12285866e-02 2.01411992e-02 -2.79102102e-02
      -2.18123607e-02 2.49527264e-02 -3.84942144e-02 -6.19839691e-02
      -4.02161106e-02 -2.00405233e-02 6.81629106e-02 3.49969463e-03
      -2.70477473e-03 1.24162538e-02 2.10101865e-02 1.27144344e-03
      -3.30914627e-03 -5.03368815e-03 -4.79943752e-02 5.22271097e-02
      7.32145878e-03 -4.94150864e-03 2.18850691e-02 7.11506791e-03
      2.03806367e-02 2.65817400e-02 -4.74286219e-03 7.51398355e-02
      3.77919823e-02 7.52040325e-03 2.49000564e-02 -5.42580849e-03
      -1.21858669e-02 5.52916452e-02 4.08641845e-02 2.12295372e-02
      3.30415256e-02 4.70447354e-02 8.53263773e-03 2.71359738e-02
      2.73460126e-03 -1.12844014e-03 1.92042049e-02 -1.93044990e-02
      -1.37403123e-02 2.42207907e-02 6.05230331e-02 7.69875795e-02
      1.52936755e-02 2.88041700e-02 -1.30137485e-02 -7.15812342e-03
      -1.55816618e-02 -1.50323631e-02 9.70662199e-03 1.35275543e-01
      4.12618332e-02 1.23527246e-02 -2.01919340e-02 -2.68062595e-02
      -1.18595073e-02 -4.97562019e-03 -4.46803533e-02 -1.01951929e-02
      3.81645076e-02 5.39080091e-02 -4.72849198e-02 5.20746186e-02
      2.48285532e-02 4.59336713e-02 -2.50980966e-02 -7.21548945e-02
      -9.12759006e-02 4.12296131e-02 2.40134969e-02 -2.28688288e-02
      -2.82593537e-02 1.62527617e-02 -3.36986259e-02 -4.92511205e-02
      -3.49523947e-02 -2.15880573e-02 5.93575649e-02 1.13364682e-02
      -5.73342945e-03 -1.62804388e-02 6.96492791e-02 -8.65819212e-03
      -2.52692495e-02 -7.81097170e-03 3.60064209e-02 3.40244174e-02
      -3.12870331e-02 -2.01910660e-02 2.28253081e-02 8.59191176e-03
      2.49014213e-03 1.61855128e-02 -9.37229767e-03 5.03353626e-02
      1.84216388e-02 6.59234647e-04 2.77336296e-02 -7.84358755e-03
      -2.05952395e-02 4.52324711e-02 3.08331698e-02 1.90098751e-02
      2.29063146e-02 2.95478944e-02 2.98180641e-03 2.29121912e-02
      -6.34405576e-03 -2.36391369e-02 -4.14802544e-02 -4.82731387e-02
      8.35188478e-03 2.89640669e-02 2.66273953e-02 -2.02198877e-04
      -6.21029409e-03 3.12466100e-02 -1.33968573e-02 -7.15728663e-03
      -1.90912224e-02 -3.55871134e-02 1.09650483e-02 1.11073866e-01
      2.47411188e-02 1.59707349e-02 -1.93085223e-02 -2.78768800e-02
      -1.57213937e-02 -6.36455556e-03 -4.43156436e-02 -1.68629847e-02
      1.50712868e-02 3.57463248e-02 -4.70309705e-02 -8.36864579e-03
      6.88974094e-03 -1.52588950e-03 -3.78394994e-04 7.70237222e-02
      8.83768201e-02 5.11237457e-02 -2.74500623e-02 -7.75354961e-03
      -2.56737508e-02 1.10912379e-02 -4.00115028e-02 -4.68585379e-02
      -3.74971032e-02 -2.36395877e-02 4.45987917e-02 1.34820398e-02
      -2.68598925e-03 -1.47717521e-02 6.70564771e-02 -1.05155371e-02
      -2.64771450e-02 -2.32248288e-02 1.95832867e-02 2.91487686e-02
      -2.78196447e-02 -1.94789730e-02 3.24149020e-02 9.48225856e-02
      -1.65895447e-02 -1.26240756e-02 9.39538889e-03 2.39448901e-02
      7.19883069e-02 5.67850331e-03 -3.12172417e-02 -8.31359345e-03
      -1.84850115e-02 3.09115034e-02 3.17090489e-02 1.67467054e-02
      1.08568985e-02 -2.87449406e-03 -4.16547060e-03 2.66904701e-02
      -4.26256750e-03 -2.43383441e-02 -4.52718288e-02 -4.34468277e-02
      -5.24993660e-03 1.18721500e-02 1.34407040e-02 -8.22799094e-03
      -1.04235429e-02 1.94588918e-02 -6.47459254e-02 -2.58884057e-02
      -1.85528714e-02 -3.24271224e-03 1.93205103e-02 3.04523408e-02
      3.22247334e-02 2.59811673e-02 -1.48037989e-02 -2.73062587e-02
      -1.85218658e-02 -9.13877040e-03 -4.25812900e-02 -2.00081356e-02
      -1.21187400e-02 1.69874020e-02 -3.50553319e-02 -5.31497551e-03
      6.31604111e-03 -2.03952892e-03 -5.11673233e-03 5.33758700e-02
      6.13094345e-02 4.43966575e-02 -2.77233664e-02 -3.76189430e-03
      -8.95408634e-03 2.95864837e-03 -1.28544355e-03 -5.91555983e-03
      -2.10662819e-02 -1.49923125e-02 -7.87904020e-03 6.87828958e-02
      8.80392119e-02 -1.26551036e-02 6.78351969e-02 -9.37075634e-03
      -2.91161314e-02 -3.10187787e-02 1.81298945e-02 1.97614860e-02
      -2.51207110e-02 -2.35764515e-02 2.69958973e-02 9.23063830e-02
      -1.73937716e-02 -1.28932260e-02 6.70223264e-03 2.36923154e-02
      6.27036467e-02 3.37380869e-03 -3.62679549e-02 1.29801892e-02
      -3.45291831e-02 -3.55229303e-02 2.70730611e-02 2.64322478e-02
      1.35255978e-02 9.16719660e-02 9.55230382e-04 -6.72174841e-02
      -2.53576390e-03 -2.49868799e-02 -4.75632399e-02 -3.96868177e-02
      -1.18774287e-02 3.62462504e-03 1.34835457e-02 -8.64987075e-03
      -1.41922962e-02 1.14760092e-02 -6.95798844e-02 -2.37327833e-02
      -1.83087271e-02 -4.67873411e-03 1.69538353e-02 2.68792473e-02
      2.63335519e-02 2.45253425e-02 -1.52950420e-03 2.90591680e-02
      6.65581450e-02 -6.16526278e-03 2.77412776e-02 -9.48731788e-03
      4.17989120e-02 2.07895394e-02 1.48665858e-02 -3.52476537e-03
      5.93518699e-03 -1.97448093e-03 -7.94461928e-03 3.26867290e-02
      5.08694164e-02 5.13412096e-02 -2.74568889e-02 -5.33404341e-03
      -5.36190113e-04 2.14423472e-03 -9.47723456e-04 -8.70705675e-03
      -2.12349873e-02 -1.39298802e-02 -1.16749490e-02 3.93872932e-02
      8.78629833e-02 -7.12094875e-03 -1.27092768e-02 1.35721369e-02
      4.75543039e-03 1.29918037e-02 2.41748616e-02 -6.64646998e-02
      1.54323149e-02 -2.18847301e-03 2.53624283e-02 1.01078324e-01
      -1.77654829e-02 -1.65283084e-02 7.05482624e-03 2.46679038e-02
      5.27978987e-02 -3.93662881e-03 -4.07396853e-02 1.97649058e-02
      -2.61171516e-02 -3.69366817e-02 2.52893399e-02 2.67657824e-02
      1.72934756e-02 8.79839882e-02 -1.52369915e-02 -7.12248683e-02
      1.29097719e-02 5.46361133e-02 -3.80981271e-03 5.84355881e-03
      -5.91793992e-02 7.58842565e-03 6.61409944e-02 5.91597194e-03
      -1.18483834e-01 6.30958192e-03 -7.07803816e-02 -2.87888702e-02
      -2.05638688e-02 -4.83715581e-03 1.73604209e-02 2.44482104e-02
      2.76402403e-02 2.03001648e-02 1.81891664e-03 2.38616485e-02
      5.38735799e-02 -5.22548612e-03 1.97114721e-02 -9.50416643e-03
      4.02450264e-02 1.93636976e-02 1.85473058e-02 1.88496113e-02
      5.21634631e-02 5.39685823e-02 -2.44907178e-02 1.32430410e-02
      8.91402364e-02 8.12008977e-03 7.74221048e-02 -3.93920615e-02
      -1.25948328e-03 2.88110669e-03 -8.35601473e-04 -1.15914978e-02
      -2.33312286e-02 -1.69476811e-02 -1.25654945e-02 4.09120210e-02
      8.35004449e-02 -5.81763731e-03 -1.24225803e-02 9.76596493e-03
      3.43226502e-03 9.92286857e-03 1.69114918e-02 -6.93320706e-02
      8.27996992e-03 -5.86505188e-03 1.48391426e-02 2.13439669e-02
      5.76643366e-03 5.71224606e-03 3.01682446e-02 4.02745977e-02
      5.97622767e-02 -3.37396115e-02 -4.37406376e-02 2.80036591e-02
      -1.30116986e-02 -3.65683213e-02 2.79697012e-02 2.59244014e-02
      1.91911254e-02 8.78030807e-02 1.59666128e-02 -6.18319996e-02
      1.08973971e-02 5.25278151e-02 3.52383824e-04 1.15186274e-02
      -6.02668375e-02 7.64023792e-03 6.22523688e-02 2.25923881e-02
      -1.01126492e-01 5.41640492e-03 3.55649367e-02 6.57498604e-03
      -2.29649190e-02 9.28949192e-03 7.73103014e-02 3.50115299e-02
      -1.40370792e-02 -3.43519375e-02 1.43556716e-02 2.76589356e-02
      6.55765757e-02 -1.85330515e-03 1.60829909e-02 -1.26083642e-02
      3.65480483e-02 3.66062187e-02 2.27396674e-02 2.20578592e-02
      6.03602864e-02 5.75371608e-02 -1.57790259e-02 1.27624543e-02
      9.12598968e-02 7.39369600e-04 7.80726001e-02 -1.11816125e-02
      5.27437180e-02 2.94660795e-02 2.01436449e-02 2.83484496e-02
      -7.86907692e-03 1.33255079e-01 1.73600949e-02 -3.62107356e-04
      -4.87217419e-02 -2.18459661e-03 -1.05837798e-02 9.08283237e-03
      3.82912788e-03 7.81496987e-03 3.49928369e-03 -6.18629642e-02
      3.80022451e-02 -2.28768936e-03 2.35246178e-02 2.18885802e-02
      5.02040843e-03 5.85957205e-05 2.31770631e-02 5.03287911e-02
      6.04716167e-02 -2.99953055e-02 -1.73336640e-02 -8.68577790e-03
      4.59563248e-02 1.79727643e-03 1.26098143e-02 -3.76893021e-03
      3.52240205e-02 9.13326964e-02 -8.38073157e-03 -6.45568818e-02
      4.78040474e-03 1.91760436e-02 8.32261692e-04 -7.32500432e-03
      -2.18460094e-02 -5.94739132e-02 4.54678796e-02 2.86934990e-03
      -1.80268530e-02 1.02145858e-02 -3.12262820e-03 1.51977977e-02
      2.60150712e-02 -6.63625076e-03 7.34794065e-02 2.40847021e-02
      -1.11626368e-02 1.14180697e-02 -9.61201824e-03 -2.26024184e-02
      3.33121531e-02 3.64001431e-02 2.33351924e-02 2.40827445e-02
      3.56062502e-02 -5.42868068e-03 1.84549931e-02 -2.72136764e-03
      -3.24752182e-03 1.53780999e-02 -2.75976341e-02 -3.67867351e-02
      1.56585854e-02 5.82354665e-02 7.26962015e-02 1.06817228e-03
      2.75074318e-02 -1.30070560e-02 -8.51059519e-03 -1.95595436e-02
      -1.55632878e-02 1.58109684e-02 1.29568219e-01 1.80581622e-02
      -5.57589578e-03 -2.20856182e-02 -2.51654293e-02 -1.41912224e-02
      -5.30463737e-03 -4.48797196e-02 -2.18343548e-02 1.86755620e-02
      3.25578079e-02 -4.90423404e-02 3.56136523e-02 2.42981184e-02
      -3.08377692e-03 6.73166895e-03 -2.29931790e-02 1.51287923e-02
      5.39807416e-02 1.99941117e-02 4.32971157e-02 1.43557088e-02
      7.17678526e-03 -1.34666562e-02 6.25910237e-03 2.18889844e-02
      -3.96790495e-03 -1.30967973e-02 4.52835858e-03 5.34469038e-02
      1.30428467e-02 -1.89759433e-02 1.69569044e-03 -4.36696550e-03
      4.96592605e-03 -1.51280733e-02 2.10426338e-02 -2.40266323e-02
      3.36258747e-02 1.68665852e-02 1.16680255e-02 1.19818831e-02
      1.93767436e-02 -7.68931163e-03 3.04672252e-02 -7.90653843e-03
      -3.91908968e-03 2.10336596e-02 -1.33760069e-02 -3.12724672e-02
      4.18447852e-02 3.50795090e-02 2.27890387e-02 1.23821516e-02
      4.01700661e-03 -1.26016270e-02 1.40282251e-02 -8.31716042e-03
      -2.55805235e-02 -4.22706455e-02 -4.96329702e-02 6.96718926e-05
      9.65780951e-03 3.94699816e-03 -4.98424610e-03 -1.00477831e-02
      2.85332184e-02 -1.06481742e-02 -5.88076888e-03 -2.10399143e-02
      -4.42488454e-02 2.07385328e-03 1.01332955e-01 1.92357134e-02
      -1.65145306e-04 -2.22267620e-02 -2.86208298e-02 -1.54429823e-02
      -6.28672494e-03 -4.52001691e-02 -2.58593224e-02 -4.03959444e-03
      1.55847929e-02 -5.39164469e-02 -1.21539533e-02 6.95765950e-03
      -1.69583096e-03 1.35711464e-03 6.91138804e-02 5.83800077e-02
      3.71511094e-02 -2.84999609e-02 -1.38371298e-02 2.65116673e-02
      1.21052777e-02 -1.30375884e-02 -1.09316129e-02 -9.26266238e-03
      -6.25212071e-03 -1.53646180e-02 5.11697261e-03 5.53125292e-02
      8.81383009e-03 -1.83126219e-02 4.84717591e-03 1.49202504e-04
      1.09321652e-02 -6.95042079e-03 1.24455895e-02 -2.24070139e-02
      2.23948434e-02 2.62557250e-02 1.01597384e-01 5.73290959e-02
      3.17594483e-02 2.59040911e-02 2.50447430e-02 -2.77962000e-03
      -2.37764530e-02 1.48480078e-02 -1.28833028e-02 -2.38068625e-02
      2.99955159e-02 3.13717462e-02 1.95666198e-02 3.61661823e-03
      -3.25379074e-02 -1.84531771e-02 1.84561908e-02 -4.55526961e-03
      -2.36812253e-02 -4.24144007e-02 -4.37261611e-02 -1.77660678e-02
      -8.18224158e-03 -7.36906473e-03 -1.23262657e-02 -1.35323582e-02
      1.60298925e-02 -6.94046021e-02 -2.12004408e-02 -1.77033562e-02
      -4.98840120e-03 1.44727118e-02 1.53644755e-02 2.21768003e-02
      1.55100124e-02 -1.60009246e-02 -2.71513667e-02 -1.98503230e-02
      -9.92530026e-03 -4.62406017e-02 -3.09783183e-02 -3.67447361e-02
      -8.12814198e-03 -4.44714166e-02 -1.11527164e-02 7.46783568e-03
      -2.13628588e-03 -2.69652344e-03 3.95298153e-02 3.36730704e-02
      3.04247979e-02 -2.95772739e-02 -9.36414953e-03 -9.44168679e-03
      3.14556016e-03 -7.47026468e-04 -7.79159786e-03 -2.78830267e-02
      -1.71369724e-02 -8.01009312e-03 4.33092266e-02 6.44783154e-02
      4.87990119e-03 -2.00377293e-02 5.58476709e-03 -4.12918953e-03
      8.29815492e-03 -8.04768223e-03 7.66813289e-03 -2.26299036e-02
      2.73736492e-02 2.87253708e-02 8.84179547e-02 4.76325341e-02
      2.34385375e-02 1.84078291e-02 2.98821181e-02 -4.88630449e-03
      -2.10786257e-02 1.89171899e-02 3.12370434e-02 4.43119742e-03
      1.22936077e-01 3.65924165e-02 -1.71588566e-02 -6.39101258e-03
      -1.93039924e-02 -3.30151943e-03 2.45040730e-02 -3.60767706e-03
      -2.43257694e-02 -4.65995669e-02 -4.00270410e-02 -2.31400486e-02
      -1.50770582e-02 -6.51118485e-03 -1.38848955e-02 -1.69157926e-02
      6.77846000e-03 -7.31422752e-02 -1.81245785e-02 -1.76249426e-02
      -6.77511794e-03 1.22502688e-02 1.37758302e-02 1.85537916e-02
      1.27597675e-02 -1.39402144e-03 3.00665349e-02 5.12361377e-02
      -1.08200209e-02 2.85927653e-02 -1.31942807e-02 3.67421424e-03
      2.63052620e-03 1.19757038e-02 -1.01126628e-02 7.27722049e-03
      -2.35485635e-03 -6.19782228e-03 2.71783751e-02 2.57089790e-02
      3.62832583e-02 -2.91566607e-02 -1.01558510e-02 -1.68062153e-03
      2.84948177e-03 -6.14274119e-04 -1.18895834e-02 -2.91887503e-02
      -1.62866544e-02 -1.12311365e-02 2.70581245e-02 6.45002127e-02
      -7.17760623e-03 -1.20721515e-02 1.44072184e-02 2.14201561e-03
      1.10784760e-02 1.82916652e-02 -8.72263685e-02 6.69948710e-03
      -2.75633344e-03 3.12324762e-02 8.55134502e-02 4.11619879e-02
      2.09621061e-02 1.83573756e-02 3.41868848e-02 -6.70705596e-03
      -2.21482608e-02 2.35234834e-02 3.60570922e-02 5.90947829e-03
      1.11533634e-01 2.59409640e-02 -2.07973886e-02 -7.55480723e-03
      -1.95356328e-02 -3.58776120e-03 2.11157631e-02 2.44981935e-03
      2.81042699e-03 4.42377431e-03 -3.49610224e-02 3.13794916e-03
      9.36316850e-04 1.49759080e-03 -5.81751578e-03 -3.65991448e-03
      7.64482934e-03 -7.48349577e-02 -2.27897912e-02 -2.02522539e-02
      -5.38407499e-03 1.84026398e-02 2.18341444e-02 2.47557852e-02
      1.63651556e-02 6.46373024e-03 2.82436274e-02 4.36458290e-02
      -9.21416655e-03 1.99317243e-02 -8.69325548e-03 1.88777559e-02
      1.26374466e-02 2.39370335e-02 1.98149458e-02 5.42381853e-02
      5.96559606e-02 -2.67765783e-02 1.51040247e-02 9.55484137e-02
      -5.55352913e-03 6.02812245e-02 -4.44613844e-02 8.20718240e-04
      4.02545789e-03 -3.34292068e-04 -1.24265878e-02 -2.81715337e-02
      -1.87086016e-02 -1.09159164e-02 3.31349410e-02 8.29813331e-02
      -4.24285373e-03 -1.21668465e-02 1.06792916e-02 2.62267538e-03
      1.02268551e-02 1.48971109e-02 -8.34476873e-02 9.80051700e-03
      -6.17659511e-03 1.56791359e-02 2.31333058e-02 6.93876203e-03
      7.02416478e-03 2.42112055e-02 4.09529358e-02 6.33126199e-02
      -4.10496108e-02 -4.11011651e-02 5.20983599e-02 1.55925555e-02
      1.07378416e-01 2.88589783e-02 -2.08545756e-02 -7.38444272e-03
      -1.75167210e-02 -1.62941951e-03 8.45570769e-03 2.13005440e-03
      3.39263072e-03 6.89457357e-03 -4.41990867e-02 5.46788285e-03
      1.59964629e-03 3.94799886e-03 -7.87821598e-03 -2.62471568e-03
      -4.05851789e-02 -8.06079060e-03 1.22302426e-02 3.18072736e-02
      4.34343368e-02 -1.81225576e-02 -1.54169928e-03 -7.64936861e-03
      -4.08635736e-02 1.76729318e-02 3.83053534e-02 6.27829507e-02
      -6.28658151e-03 1.66581850e-02 -9.27914865e-03 3.18002887e-02
      3.98273431e-02 2.47133933e-02 2.10824478e-02 6.51499256e-02
      6.76413104e-02 -2.36004014e-02 1.71204470e-02 9.55594182e-02
      -4.35612909e-03 8.16195011e-02 -3.28390137e-03 5.30762114e-02
      3.17040421e-02 2.32450720e-02 3.16265896e-02 1.77682526e-02
      1.41993746e-01 1.65649317e-02 -4.88204509e-03 -6.32319301e-02
      -1.61669147e-03 -9.37984698e-03 8.32363404e-03 4.36745258e-03
      8.37958232e-03 -2.29013106e-03 -6.85526282e-02 4.07053865e-02
      -2.39173882e-03 2.43372004e-02 2.13626474e-02 4.98585263e-03
      3.23702977e-03 2.90886052e-02 3.99037413e-02 6.80679828e-02
      -2.60969121e-02 -1.03621418e-02 -8.81532487e-03 4.80719432e-02
      1.50660810e-03 1.50363427e-02 1.52110578e-02 3.82352583e-02
      9.15897414e-02 -1.22432290e-02 -7.29327351e-02 1.01352688e-02
      8.68123118e-03 5.86710498e-03 -4.22864631e-02 1.57973897e-02
      -1.57279777e-03 6.73052901e-03 -7.61227217e-03 -2.07526702e-03
      -1.01821711e-02 -6.90546725e-03 1.14738420e-02 2.91414596e-02
      4.37336192e-02 -2.30411207e-03 -3.23652383e-03 -3.75104486e-03
      -2.19977256e-02 -8.53649676e-02 3.99310142e-02 4.56639975e-02
      1.63831245e-02 2.93442719e-02 -4.55767922e-02 9.40349139e-03
      1.04905833e-02 -2.29043197e-02 -6.81840675e-03 -7.31167616e-03
      1.44194765e-02 -5.37722521e-02 -1.01692475e-01 -1.02965033e-03
      6.52842596e-02 6.90010265e-02 -2.96057053e-02 3.03821843e-02
      -1.61607713e-02 -1.22783771e-02 -3.22196856e-02 -2.03468483e-02
      1.44085623e-02 1.16055034e-01 -4.12541144e-02 -3.55823562e-02
      -3.65957320e-02 -2.93657668e-02 -2.21954137e-02 -7.98570644e-03
      -4.93910201e-02 -5.20556495e-02 -5.44349626e-02 -2.47966442e-02
      -6.29374236e-02 3.52034643e-02 2.88709849e-02 -4.18485235e-03
      -3.85458395e-03 -6.00215979e-02 3.34224338e-03 5.00383116e-02
      1.13469716e-02 9.51961242e-03 1.15439333e-02 1.07999984e-02
      -2.57483777e-02 -1.60647891e-02 1.28927911e-02 -3.40506993e-03
      -1.77613571e-02 6.55907206e-04 4.54324260e-02 -3.77946184e-03
      -2.23484244e-02 5.23157069e-04 -1.40519664e-02 -4.03417833e-03
      -2.04501860e-02 1.19261490e-02 -4.12182659e-02 2.31998712e-02
      7.26478249e-02 -1.48632033e-02 5.56250028e-02 -1.71700437e-02
      5.20657748e-04 1.65138636e-02 1.44574968e-02 5.00258431e-02
      8.98198485e-02 3.98770310e-02 8.99032596e-03 2.00761631e-02
      6.30671456e-02 -8.63767136e-03 -1.97488982e-02 -3.17208725e-03
      -3.45708765e-02 2.38033999e-02 5.22809513e-02 -9.17269196e-03
      1.31999026e-03 2.48908512e-02 -1.44611662e-02 -7.45323440e-03
      -3.58525710e-03 -4.82579367e-03 5.26722632e-02 3.37082967e-02
      -7.75310770e-03 -5.08876145e-03 -3.01471613e-02 -5.79938404e-02
      -1.34634115e-02 8.05249289e-02 -1.73596223e-03 -1.75641384e-02
      -3.27772796e-02 -3.07226721e-02 -1.62086319e-02 -7.08115380e-03
      -4.85305488e-02 -3.86287831e-02 -4.90653701e-02 -2.64529940e-02
      -6.81133643e-02 -1.78101268e-02 7.45574990e-03 -2.75548315e-03
      -2.75401562e-03 5.62252514e-02 9.79166012e-03 2.91213975e-03
      -3.54209356e-02 -2.10688766e-02 2.53405198e-02 1.45266028e-02
      -1.79911871e-02 -1.98475402e-02 -2.56190263e-02 -7.80072296e-03
      -1.66643150e-02 5.48804505e-03 4.67702523e-02 1.85218523e-03
      -2.19379216e-02 4.34357906e-03 -4.98826476e-03 6.05283119e-03
      -8.77237599e-03 9.19415429e-03 -3.05560045e-02 1.43469097e-02
      8.43082834e-03 7.42841735e-02 2.98550036e-02 2.10658740e-02
      1.63490754e-02 1.14268931e-02 -8.39669351e-03 -3.17028202e-02
      6.13387348e-03 5.80084696e-02 1.77689996e-02 2.21385956e-02
      2.16349121e-02 -2.92473733e-02 -1.79655887e-02 -6.08674111e-03
      -3.25054899e-02 5.82148694e-02 4.42031957e-02 8.89990013e-03
      1.70380634e-03 2.50160825e-02 -4.13589692e-03 -4.77456069e-03
      1.64586562e-03 -3.85773834e-03 3.10899056e-02 6.60803765e-02
      4.69644815e-02 4.23749685e-02 1.33764325e-02 -2.24008448e-02
      2.97044013e-02 7.10668117e-02 -6.19303994e-03 6.92882687e-02
      -2.11781431e-02 -2.83431467e-02 -2.28172503e-02 -1.15531273e-02
      -4.95932065e-02 -4.58523072e-02 -8.63180831e-02 -4.43967059e-02
      -5.82936779e-02 -1.54966675e-02 6.28578756e-03 -2.76775379e-03
      -8.77327565e-03 1.57136787e-02 -9.41163115e-03 9.66361444e-03
      -3.20919193e-02 -1.62793752e-02 -1.89215094e-02 2.74347840e-03
      -1.49963738e-03 -1.09740663e-02 -3.61634381e-02 -2.01243460e-02
      -1.35488696e-02 4.12248122e-03 2.74831522e-02 -4.28090431e-03
      -2.69833822e-02 3.75668448e-03 -8.91881157e-03 3.08418833e-03
      -9.40437522e-03 3.31479055e-03 -2.74772756e-02 2.12663133e-02
      1.78826805e-02 7.09736571e-02 2.62795072e-02 1.01689966e-02
      4.08334518e-03 2.01487318e-02 -9.32379533e-03 -2.39680726e-02
      1.29830763e-02 1.79650839e-02 -1.50525188e-02 8.96324664e-02
      2.65897345e-02 -3.02545037e-02 -1.16080800e-02 -2.59306356e-02
      -7.99049344e-03 7.47920619e-03 3.20249684e-02 1.17892940e-02
      -1.33380909e-02 4.19299211e-03 -2.36889767e-03 -2.91990303e-03
      2.00504437e-03 -3.75590799e-03 2.79889423e-02 5.81652783e-02
      2.63486393e-02 1.88059304e-02 3.32810963e-03 -2.42954250e-02
      2.00032480e-02 4.77242433e-02 -9.71699413e-03 6.70388937e-02
      5.74050983e-03 4.60281223e-03 8.67460147e-02 1.76076535e-02
      5.46849035e-02 2.35890783e-02 2.61655431e-02 -5.53175341e-04
      1.56800286e-03 -1.54140498e-02 6.30408758e-03 -3.05885146e-03
      -1.17026009e-02 1.15404036e-02 -1.67451333e-02 1.67044122e-02
      -3.18551175e-02 -1.71698928e-02 -1.39145665e-02 3.21710017e-03
      -1.02005526e-03 -1.41561432e-02 -3.81073020e-02 -1.96265839e-02
      -1.44650014e-02 1.27369061e-03 3.19512375e-02 -9.41375829e-03
      -1.16106961e-02 1.09173255e-02 9.24367399e-04 9.26264469e-03
      -3.95442359e-03 -1.28628746e-01 -1.61847919e-02 -7.29284948e-03
      2.36041769e-02 7.16245323e-02 2.26397421e-02 7.82566331e-03
      4.63855872e-03 2.19863653e-02 -1.12616271e-02 -2.43773647e-02
      1.58351436e-02 2.13831440e-02 -6.43566204e-03 8.43116641e-02
      2.14746632e-02 -2.85036489e-02 -1.23311635e-02 -2.63085272e-02
      -6.71939459e-03 4.13020141e-03 7.99245958e-04 9.83059988e-04
      4.86329570e-03 -4.54128981e-02 -4.16735699e-03 -2.92487442e-03
      -5.39845496e-04 -6.92556333e-03 -5.84518211e-03 6.13717027e-02
      2.32486520e-02 2.15123724e-02 1.78024534e-03 -2.60266736e-02
      1.73690878e-02 4.25075032e-02 -1.16721420e-02 7.22222850e-02
      4.91916481e-03 3.05411452e-03 8.23188946e-02 1.30162947e-02
      5.14023490e-02 2.20755730e-02 2.15844903e-02 -1.31183304e-03
      5.51918382e-03 9.08336788e-03 -3.77985872e-02 1.38348304e-02
      -1.07303243e-02 3.16221453e-02 2.23683454e-02 -2.10886095e-02
      1.86886527e-02 1.30136684e-03 4.73441975e-03 4.81264247e-03
      7.55383735e-05 -1.37701873e-02 -3.50667536e-02 -2.22019814e-02
      -1.40923057e-02 8.48459825e-03 8.29661861e-02 -2.32211594e-03
      -1.17021613e-02 9.92444810e-03 2.37008906e-03 1.21836066e-02
      2.58246553e-03 -1.12752266e-01 5.26928576e-03 -6.93957135e-03
      1.25190262e-02 2.36564130e-02 9.41158831e-03 7.91273359e-03
      2.37127952e-02 3.55955437e-02 6.47198632e-02 -4.48132195e-02
      -5.23437411e-02 5.46958484e-02 1.53914662e-02 8.69915783e-02
      2.80965213e-02 -2.50413772e-02 -1.16225667e-02 -2.54716296e-02
      -9.76361800e-04 1.25738261e-02 3.07247438e-03 3.38815269e-03
      9.40910447e-03 -4.79143150e-02 8.12711008e-03 3.53192678e-03
      4.11647419e-03 -9.02238209e-03 -2.35205749e-03 -5.77242933e-02
      -1.34096388e-02 1.51091740e-02 3.81954610e-02 4.45749350e-02
      -1.37295192e-02 9.47253429e-04 -8.08630884e-03 -5.05410433e-02
      1.58227701e-02 2.89739873e-02 1.08383216e-01 1.96823776e-02
      5.18309399e-02 3.33421603e-02 2.62271948e-02 1.10068452e-02
      2.15295460e-02 1.75036006e-02 -2.33145878e-02 2.46667508e-02
      -9.69275646e-03 5.62989451e-02 2.96454895e-02 -2.51687709e-02
      1.63943972e-02 5.18545974e-03 -5.37888072e-02 7.05147162e-02
      1.61621347e-02 -1.35240955e-02 1.07411230e-02 -8.00825842e-03
      -3.61010688e-03 1.20075382e-02 1.19858487e-02 1.47701032e-03
      -9.20081511e-03 4.95109055e-03 3.36400536e-03 1.27186254e-02
      -5.40448911e-03 -1.02380939e-01 3.69902328e-02 -1.79703499e-03
      2.63078250e-02 2.43407357e-02 6.16905745e-03 3.65151116e-03
      4.54536341e-02 3.02454513e-02 6.84608296e-02 -3.04020736e-02
      -5.34498692e-03 -2.47356258e-02 5.88722415e-02 2.48488243e-04
      2.21106354e-02 1.89005248e-02 5.04836254e-02 1.02072485e-01
      -2.64331754e-02 -1.02122009e-01 1.62717905e-02 1.06264642e-02
      5.88030554e-03 -4.81959172e-02 1.89559236e-02 8.65928188e-04
      7.38661690e-03 -9.49342269e-03 -2.12671049e-03 -1.80209372e-02
      -1.47063881e-02 1.62345655e-02 3.79067659e-02 5.77300750e-02
      -2.71023205e-03 1.39963848e-03 -2.97103962e-03 -2.98607107e-02
      -1.03010952e-01 5.10407947e-02 5.87861091e-02 1.41512193e-02
      3.78964134e-02 -5.01724705e-02 9.03753657e-03 8.06635246e-03
      -3.07860672e-02 3.02458797e-02 -1.10900374e-02 5.18780015e-02
      -3.56680318e-03 6.88442811e-02 4.17750962e-02 -3.43779586e-02
      5.61898807e-03 9.10049863e-03 -1.64692979e-02 9.44863185e-02
      2.78690364e-02 -1.18614240e-02 2.64849439e-02 -3.08956206e-03
      -1.79017300e-03 1.42736034e-02 2.80094221e-02 -1.43929776e-02
      1.15556633e-02 6.72714338e-02 2.12134123e-02 8.50554109e-02
      1.51706804e-02 3.72293172e-04 1.03347097e-03 -8.87011923e-03
      6.62555220e-03 1.65626686e-02 -1.92679483e-02 -9.64188669e-03
      -7.96231553e-02 -3.18240072e-03 5.34020439e-02 7.89954700e-03
      -3.82547788e-02 6.18066592e-03 6.95529953e-03 -4.64965105e-02
      -4.28594090e-02 -1.03011383e-02 -8.31872225e-03 -2.45414842e-02
      4.40194010e-04 3.62121463e-02 -3.01082712e-02 -3.80135402e-02
      -7.53957499e-03 -1.96770709e-02 -1.22357793e-02 -2.71027647e-02
      7.15613225e-03 -5.85680343e-02 -5.17215231e-04 3.77168022e-02
      -2.49387976e-02 5.25203757e-02 -2.05566064e-02 3.65657988e-03
      1.80404335e-02 6.83007622e-03 1.84427630e-02 -2.50597987e-02
      3.17725465e-02 -2.25344949e-04 4.82069002e-03 3.96772213e-02
      -1.57121252e-02 -2.33448036e-02 -4.51927958e-03 -3.54217701e-02
      2.23736130e-02 3.55357379e-02 -4.64745425e-02 -3.16905715e-02
      1.81290917e-02 -3.23520117e-02 -1.60874128e-02 -7.26059219e-03
      -1.14500467e-02 3.48284356e-02 5.68827987e-02 -2.35699732e-02
      2.79353894e-02 2.70179044e-02 8.94774310e-03 -1.32712023e-02
      -7.75729446e-03 9.23864245e-02 7.00460002e-02 3.98733765e-02
      5.53520806e-02 1.13929482e-02 -1.62312873e-02 5.57169551e-04
      3.27897840e-03 -4.70231399e-02 2.98884902e-02 3.73914167e-02
      5.15827071e-03 5.16233258e-02 -6.57335017e-03 3.87598686e-02
      -1.04638943e-02 -2.95558851e-02 -6.07566014e-02 -4.49473672e-02
      2.76307240e-02 2.30810959e-02 1.20823737e-02 -2.31502987e-02
      -2.95620840e-02 -4.06748243e-02 -1.24725178e-02 -1.73374768e-02
      9.78610292e-03 3.97704430e-02 -5.15422178e-03 -3.02914288e-02
      5.27450908e-03 6.17892481e-04 9.86448210e-03 -8.55579320e-03
      6.37877826e-03 -3.63490246e-02 8.09877180e-03 6.75493153e-03
      5.96463718e-02 2.43908828e-04 2.09924392e-02 1.77248791e-02
      -2.35571666e-03 -7.74968229e-03 -3.16756740e-02 -3.30569758e-03
      5.53551167e-02 1.47390366e-02 2.07248777e-02 2.86146086e-02
      -2.59584412e-02 -1.83276646e-02 -6.38380554e-03 -3.55783887e-02
      3.99934724e-02 3.85956876e-02 -2.32197484e-03 -4.15062578e-03
      3.61436903e-02 -8.64198804e-03 -5.64843416e-03 -9.66612773e-04
      -4.98074945e-03 2.01138593e-02 5.81534430e-02 3.22494581e-02
      2.99658179e-02 1.08296406e-02 -2.74453107e-02 2.94398144e-02
      5.05509973e-02 -1.45209702e-02 6.26851842e-02 6.89319670e-02
      5.14116585e-02 3.10227200e-02 -3.62808146e-02 -2.10255794e-02
      -3.78411473e-03 -3.31301913e-02 4.90936972e-02 7.91205689e-02
      3.39969173e-02 7.06131458e-02 1.95180383e-02 4.07541133e-02
      -3.15549737e-03 -1.83979962e-02 -4.37204428e-02 -4.39244471e-02
      8.24137870e-03 3.23068798e-02 5.65143675e-02 6.45510852e-02
      3.66537198e-02 -3.63811664e-02 1.89056562e-03 4.20656390e-02
      -6.23913705e-02 -2.64525358e-02 -1.40713276e-02 -3.08954939e-02
      2.39900709e-03 -1.30492039e-02 1.54535088e-03 -1.32620661e-02
      -8.00868205e-04 -2.98688374e-02 8.94531421e-03 1.11514237e-02
      6.93631172e-02 4.40576114e-03 2.06666940e-04 -2.09240764e-02
      1.34935845e-02 -7.78243784e-03 -2.35515907e-02 6.92291185e-03
      1.41975489e-02 -1.67222749e-02 6.92870989e-02 2.55075265e-02
      -3.26864161e-02 -8.20397027e-03 -2.23176517e-02 -8.27270374e-03
      -7.36480346e-03 2.14463435e-02 2.91291974e-03 -1.50421886e-02
      5.37361251e-03 -1.16975494e-02 -5.27767558e-03 5.48474374e-04
      -6.75176084e-03 5.17773582e-03 5.46575077e-02 7.94625282e-03
      7.02405116e-03 -1.03893746e-02 -3.15573998e-02 1.42670013e-02
      2.92450264e-02 -1.00180004e-02 5.75027876e-02 5.51834470e-04
      1.67387608e-03 6.69596568e-02 -3.19334236e-03 4.83145304e-02
      7.78853893e-03 9.98479128e-03 -5.91106340e-03 -4.66031535e-03
      4.50151749e-02 7.07983449e-02 7.05571519e-03 9.42077022e-03
      -9.61062033e-03 -1.64620187e-02 -4.16979641e-02 -4.39039767e-02
      -2.79704365e-03 2.91213132e-02 4.07036804e-02 4.83113639e-02
      2.20646989e-02 -3.45802791e-02 -2.06044186e-02 9.87890083e-03
      -5.94093613e-02 -2.78810933e-02 -6.82083145e-03 3.17457356e-02
      9.62976664e-02 3.25435176e-02 3.53561342e-02 -6.23343838e-03
      -1.96155440e-03 1.56420581e-02 -2.54324377e-02 2.45103166e-02
      6.91145435e-02 -1.13336404e-03 -2.09843810e-03 -2.12171748e-02
      1.38293533e-02 -9.68448073e-03 -2.49924250e-02 1.28927007e-02
      1.66677237e-02 -1.55353472e-02 6.36031553e-02 2.36497782e-02
      -3.26743871e-02 -8.62413831e-03 -2.17180811e-02 -8.37391242e-03
      -1.11456299e-02 -9.21738043e-04 -2.42884853e-03 -5.93173783e-04
      -6.39916584e-02 -8.78961291e-03 -9.57149640e-03 -2.75947712e-03
      -1.04717985e-02 -5.89422742e-03 5.81546351e-02 7.96139520e-03
      2.97952071e-03 -1.38844792e-02 -3.18475254e-02 1.53792072e-02
      2.45117042e-02 -1.31084854e-02 6.35635480e-02 6.86334795e-04
      -6.85952092e-03 6.15650304e-02 -2.27045920e-03 4.41348851e-02
      3.31424200e-03 2.86493194e-03 -5.05972514e-03 1.52169249e-03
      4.18091519e-03 -4.14417163e-02 4.03918792e-03 -1.88099183e-02
      2.71652862e-02 1.93496179e-02 -2.52023898e-02 1.31420018e-02
      3.81016778e-03 3.09922099e-02 4.49580438e-02 4.98686582e-02
      2.47860476e-02 -3.45503502e-02 -2.34604646e-02 4.01355233e-03
      -6.12670369e-02 -2.91318689e-02 -5.99112734e-03 3.24625485e-02
      9.51813757e-02 3.36832963e-02 3.32245119e-02 -1.29240705e-02
      -1.70735270e-02 8.27582832e-03 -2.44172141e-02 -1.31842420e-02
      5.43964561e-03 2.43668281e-03 8.87349769e-02 3.43999825e-02
      -5.97131290e-02 -5.33921197e-02 2.53111171e-03 9.15141252e-04
      6.14758059e-02 6.72688056e-03 4.07817848e-02 1.32596884e-02
      -3.77575755e-02 -9.02521983e-03 -2.08833572e-02 -5.07607870e-03
      -3.62399314e-03 2.14600726e-03 -1.05591107e-03 -1.52600300e-03
      -6.82907403e-02 3.53160081e-03 -3.04666068e-03 -7.49965024e-04
      -1.78621635e-02 -2.97500542e-03 -8.21809545e-02 -2.63869725e-02
      5.99949481e-03 3.13832723e-02 4.42661121e-02 -1.24192638e-02
      -3.07123736e-03 -1.26187783e-02 -6.97413459e-02 1.81058422e-02
      1.85678322e-02 6.84619322e-02 -3.87238036e-03 2.74049509e-02
      -9.36763175e-03 -1.29907997e-02 5.39410347e-03 1.92087442e-02
      1.35406330e-02 -3.52341458e-02 8.32312927e-03 -2.03432906e-02
      5.13617098e-02 3.14682424e-02 -3.24919112e-02 5.19565912e-03
      1.02470908e-03 -6.29769936e-02 6.63544312e-02 1.46862976e-02
      -1.89884547e-02 -2.26338045e-04 -3.15210931e-02 -9.25846118e-03
      1.16756819e-02 1.17762135e-02 4.82064113e-03 4.52512912e-02
      9.10286903e-02 2.97363847e-02 3.24694775e-02 -3.22943665e-02
      -1.92430411e-02 1.80374291e-02 -1.16341412e-02 5.72761102e-03
      8.11025035e-03 -1.26437109e-03 9.97022763e-02 4.38883528e-02
      -4.74859104e-02 -5.65676205e-02 -7.77941756e-03 -1.77386985e-03
      3.36825810e-02 3.59125137e-02 -8.26768461e-04 9.19396151e-03
      6.70868456e-02 6.40549287e-02 -2.38493066e-02 -2.71650776e-02
      1.57327252e-03 7.88777508e-03 -3.67300399e-03 -1.35613419e-02
      -7.93220252e-02 -2.66032410e-03 -1.67163052e-02 2.74207036e-04
      -2.52433009e-02 -3.24474112e-03 -6.31058514e-02 -3.79360281e-02
      4.04777564e-03 3.21537666e-02 5.45312725e-02 -1.33697167e-02
      -4.32663644e-03 -1.19376974e-02 -5.96649162e-02 -1.70524657e-01
      3.18990871e-02 6.33454621e-02 5.24022663e-03 1.23883095e-02
      -8.03260431e-02 -7.78753893e-04 -5.40494407e-03 -6.90767840e-02
      2.29817592e-02 -3.87578160e-02 1.46560762e-02 -2.57456712e-02
      4.61077169e-02 4.01153192e-02 -5.37389703e-02 -1.20477574e-02
      -5.44652622e-03 -4.76043485e-02 8.73840377e-02 1.94486436e-02
      -2.39682049e-02 1.19571351e-02 -3.47889364e-02 -7.12450640e-03
      1.24324616e-02 1.13741625e-02 -3.83935757e-02 -9.94703150e-04
      7.63517395e-02 1.53196510e-02 4.13013436e-02 -3.46735269e-02
      -1.51472809e-02 -1.35634188e-02 -2.59807538e-02 2.23828368e-02
      1.84973869e-02 -2.69784555e-02 9.27785560e-02 2.48739645e-02
      -4.23378684e-02 -6.68287128e-02 -1.72582474e-02 7.65485689e-04
      6.59352466e-02 6.72317669e-02 -1.79184810e-03 7.77447969e-03
      7.46301189e-02 6.20532855e-02 -2.76228990e-02 -4.11985964e-02
      2.17153202e-03 1.79381501e-02 -2.13381313e-02 1.07239811e-02
      4.43552174e-02 8.34526271e-02 7.26391524e-02 -3.74187455e-02
      -1.17470580e-03 5.38784405e-03 2.09961906e-02 -3.83702703e-02
      4.82102558e-02 -1.80205181e-02 -3.59834667e-04 1.53169781e-02
      2.69303448e-03 9.51160491e-03 -4.25014757e-02 2.76305526e-02
      -6.35410612e-03 -4.00488777e-03 3.14670503e-02 -2.31311526e-02
      -2.52063703e-02 -4.33990639e-03 -4.05292362e-02 -1.75971701e-03
      2.03325786e-02 -5.01615144e-02 -4.40911315e-02 1.48910629e-02
      -3.15925032e-02 -1.89946163e-02 -9.51861870e-03 -1.35706086e-02
      2.57864036e-02 4.23479527e-02 -2.44352836e-02 2.41885856e-02
      1.16714183e-02 1.02090240e-02 -1.17497323e-02 3.02368379e-03
      7.72861838e-02 2.35331599e-02 2.49582119e-02 4.28311154e-02
      6.91955723e-03 -2.52228919e-02 -1.37525070e-02 -6.03112159e-04
      -4.21193652e-02 2.51821391e-02 1.60884820e-02 -5.00023598e-03
      4.62428592e-02 -1.58258583e-02 3.25832888e-02 -1.32824285e-02
      -3.19855623e-02 -6.62789345e-02 -5.77921011e-02 6.01504277e-03
      5.17721027e-02 3.11964713e-02 2.17140149e-02 2.47245729e-02
      -4.43421751e-02 -1.09069142e-02 -1.37588540e-02 4.07937542e-02
      -4.28256355e-02 5.91496341e-02 -1.68172847e-02 -1.67445245e-03
      -5.99815324e-03 5.47620021e-02 2.73678433e-02 -4.88969348e-02
      -9.61293001e-03 -1.22039309e-02 3.15097086e-02 5.84042352e-03
      -1.74341332e-02 -5.72064631e-02 -5.42359101e-03 -5.83360493e-02
      -1.63159035e-02 -1.93945393e-02 1.93575229e-02 4.81415875e-02
      6.40480779e-03 1.51473265e-02 3.73119824e-02 -2.01008543e-02
      -1.88729633e-02 -5.44753158e-03 -3.54406424e-02 2.04889514e-02
      3.05655040e-02 -8.37434549e-03 -1.19638462e-02 3.46921049e-02
      -1.24909431e-02 -8.63112137e-03 -3.38409911e-03 -5.33957500e-03
      1.73254516e-02 4.83885035e-02 1.48481727e-02 5.99388918e-03
      -1.01795411e-02 -3.44869532e-02 1.97104011e-02 4.37888280e-02
      -2.19961144e-02 5.76812625e-02 5.47687113e-02 4.69302908e-02
      2.42193826e-02 -2.85635889e-02 -1.85099747e-02 -2.95641134e-03
      -3.18140574e-02 3.17194536e-02 5.05930595e-02 3.18149477e-02
      6.32342249e-02 1.20585160e-02 4.09843363e-02 -2.81437719e-03
      -1.98984351e-02 -4.68704179e-02 -5.14453389e-02 -3.74858337e-03
      2.14310735e-02 4.30082716e-02 5.09545431e-02 2.89648157e-02
      -4.01913747e-02 4.87304060e-04 2.29047090e-02 -6.68594614e-02
      -3.16638835e-02 7.10612759e-02 -8.65618605e-03 1.22789452e-02
      -6.98657753e-03 1.43107260e-02 1.60951000e-02 -6.33338392e-02
      6.32713083e-03 6.27047047e-02 5.92676327e-02 1.73233189e-02
      2.51154322e-02 -2.53464598e-02 -2.59781238e-02 -5.17432280e-02
      -2.41117342e-03 2.28745304e-03 3.78559679e-02 -6.24138862e-03
      1.01639725e-01 4.57416065e-02 -3.03283948e-02 2.86077578e-02
      -5.21860272e-03 -4.56464291e-02 -2.31686910e-03 2.06773728e-02
      1.10966070e-02 1.95004907e-03 -1.41796544e-02 6.32082671e-03
      -8.34963378e-03 -5.88265108e-03 5.96732832e-04 -6.55585807e-03
      -5.66882407e-03 4.82217818e-02 4.69463924e-03 6.75144698e-03
      -2.16646809e-02 -4.13155295e-02 2.09313445e-03 3.76134068e-02
      -4.50790860e-03 6.11549616e-02 -2.67975149e-03 1.86524203e-03
      6.32821470e-02 1.67670427e-03 4.05433588e-02 9.22402367e-03
      2.35501658e-02 -1.34805953e-02 -1.58621594e-02 3.59337293e-02
      6.78624660e-02 9.71345138e-03 2.17193998e-02 -4.88258479e-03
      -1.65299345e-02 -4.32129800e-02 -4.87734824e-02 -1.27455508e-02
      2.21645925e-02 5.34113534e-02 4.35512401e-02 1.51709542e-02
      -3.86800878e-02 -2.25488394e-02 8.92785564e-03 -6.19083345e-02
      -2.97131110e-02 -7.51266629e-03 3.86287831e-02 8.52452889e-02
      2.25449204e-02 3.15323658e-02 -8.25678115e-04 -1.72960106e-03
      7.10815378e-03 -2.96564419e-02 4.74502780e-02 7.47782784e-03
      2.78779473e-02 -4.14333567e-02 -3.46415974e-02 -5.24952635e-02
      -1.37015304e-03 3.25553585e-03 6.73973560e-02 -2.86524952e-03
      8.31898376e-02 3.72214541e-02 -4.75626066e-02 1.05074449e-02
      -5.83155267e-03 -4.19608578e-02 4.65818355e-03 1.99684799e-02
      -6.70075766e-04 1.53039221e-03 1.30923212e-01 -1.17788846e-02
      1.68655943e-02 4.30798270e-02 -2.87048072e-02 -3.25819030e-02
      -3.22266072e-02 5.36971092e-02 1.02025717e-02 5.05614653e-03
      -2.36955397e-02 -4.33587171e-02 2.95293238e-03 2.34367531e-02
      3.44468211e-03 7.77993873e-02 -6.84545550e-04 -1.26841373e-03
      5.34152761e-02 -1.53640681e-03 3.81362922e-02 1.38219877e-03
      6.69051846e-03 -8.69347062e-03 -1.03924144e-02 4.89557208e-03
      -3.64963971e-02 9.53183789e-03 -2.76330616e-02 1.82510484e-02
      1.42312143e-02 -2.29049847e-02 7.58891599e-03 -5.00628632e-03
      2.44489890e-02 6.02510981e-02 4.85988408e-02 1.65717974e-02
      -3.83848362e-02 -2.75394563e-02 3.93690098e-05 -5.47272898e-02
      -2.91826371e-02 -9.16112121e-03 3.22819613e-02 8.86946097e-02
      2.13381760e-02 2.60353982e-02 -1.44575145e-02 -1.55303953e-02
      -1.06996686e-05 -3.08162086e-02 -6.54029334e-03 6.56988192e-03
      7.67479744e-03 7.99077228e-02 2.41952613e-02 -6.29105195e-02
      -5.78231849e-02 -2.82613235e-03 -1.47563464e-03 -2.04174244e-03
      8.22287425e-02 2.87498273e-02 -4.92951870e-02 5.88478148e-03
      -4.76429705e-03 -4.43257205e-02 7.19938148e-03 2.89058574e-02
      -5.15287509e-03 -2.27387669e-03 1.15192525e-01 -1.70702003e-02
      1.71280038e-02 4.41033915e-02 -2.37473119e-02 -3.36671881e-02
      -3.37429978e-02 -2.46588904e-02 -3.12607959e-02 7.56741017e-02
      3.18269595e-04 1.74095314e-02 8.32124650e-02 2.74437567e-04
      2.27844017e-03 -7.72754429e-04 1.38517488e-02 2.14296323e-03
      4.68921810e-02 -3.71967070e-03 1.09726815e-02 -2.18204502e-02
      -1.91174895e-02 -1.57354083e-02 1.85850740e-03 1.03387814e-02
      -4.13117856e-02 8.18375312e-03 -2.93589402e-02 2.86430866e-02
      2.20917054e-02 -2.73865927e-02 -7.12258508e-04 -1.06502408e-02
      -6.71880394e-02 6.18658029e-02 1.02303382e-02 -2.49347445e-02
      -1.05943726e-02 -3.77779938e-02 -1.46588879e-02 8.23613815e-03
      8.80503841e-03 -3.59375350e-04 2.95269378e-02 3.94760594e-02
      1.30233569e-02 2.26931274e-02 -2.93955822e-02 -3.21749859e-02
      -7.18741352e-03 -2.03736648e-02 4.16814955e-03 1.56546349e-03
      -8.43184255e-03 7.68398494e-02 1.74773932e-02 -5.37965372e-02
      -6.12820089e-02 -1.23627894e-02 -2.99447216e-03 3.57608944e-02
      4.02171537e-02 -7.31058978e-03 5.80931734e-03 4.52235080e-02
      3.53796929e-02 -2.59626582e-02 -2.64349692e-02 -1.10238278e-03
      -1.50975820e-05 1.56192947e-02 9.78063717e-02 -2.87317131e-02
      9.11275577e-03 3.75733636e-02 -2.86109708e-02 -3.74168828e-02
      -3.29491049e-02 -1.39912441e-02 -3.00581306e-02 8.21300894e-02
      6.19297614e-03 7.97318667e-03 6.63075224e-02 -1.93980080e-03
      3.41308792e-03 7.23986421e-04 3.56175900e-02 -7.04103112e-02
      6.36470318e-02 2.58105993e-02 4.73203585e-02 2.42287293e-02
      -4.06609550e-02 -2.20770221e-02 1.67412069e-02 1.57316942e-02
      -5.24954572e-02 3.79449542e-04 -4.30736020e-02 8.18079431e-03
      1.95392743e-02 -5.40345795e-02 -2.01365873e-02 -2.70794109e-02
      -6.87128901e-02 7.70937949e-02 9.19321924e-03 -3.37700620e-02
      -1.78158917e-02 -5.86324446e-02 -2.82068979e-02 7.68368738e-03
      -6.29979279e-03 -5.07738926e-02 -1.47570074e-02 6.31304309e-02
      7.95567408e-03 1.53539926e-02 -5.58016039e-02 -1.83981284e-02
      -1.75498910e-02 -3.13585140e-02 1.47162629e-02 7.57570658e-03
      -4.16025370e-02 6.64493963e-02 -5.58887748e-03 -6.12989254e-02
      -7.20742270e-02 -2.41156463e-02 -1.89510931e-03 4.49497551e-02
      5.47387302e-02 -7.63682462e-03 2.42796587e-03 5.15560769e-02
      3.43756787e-02 -3.65478136e-02 -4.41242754e-02 -8.05665832e-03
      9.48560238e-03 -2.10747551e-02 -2.30050297e-03 4.16935533e-02
      3.29014920e-02 4.55029160e-02 -4.47655208e-02 -7.30605097e-03
      -2.42156466e-03 3.02426688e-05 -1.51997739e-02 8.34065005e-02
      -4.88585979e-03 -1.78980529e-02 4.77238111e-02 -2.79918890e-02
      1.01832869e-02 5.81173878e-03 4.47145887e-02 -8.09076801e-02
      6.65553510e-02 3.42920423e-02 1.90078635e-02 -8.74847174e-03
      -4.51176651e-02 -2.41389591e-02 2.17372514e-02 -2.05198806e-02
      -6.26297295e-02 4.69268821e-02 -2.29208823e-02 4.79089729e-02
      5.24711236e-02 -3.24571729e-02 -1.34268915e-02 8.98695737e-03</_></support_vectors>
  <decision_functions>
    <_>
      <sv_count>1</sv_count>
      <rho>2.4644472871718159e+00</rho>
      <alpha>
        1.</alpha>
      <index>
        0</index></_></decision_functions></my_svm>
</opencv_storage>
